<?xml version="1.0"?>
<opencv_storage>
<!-- Created using Computer Vision Toolbox(tm) for MATLAB(R) -->
<!-- Version 9.10.0.1602886 (R2021a) -->
<!-- Compatible with OpenCV 4.2 -->
<cascade>
  <stageType>BOOST</stageType>
  <featureType>HOG</featureType>
  <height>32</height>
  <width>32</width>
  <stageParams>
    <boostType>GAB</boostType>
    <minHitRate>9.9500000476837158e-01</minHitRate>
    <maxFalseAlarm>9.9999997764825821e-03</maxFalseAlarm>
    <weightTrimRate>9.4999999999999996e-01</weightTrimRate>
    <maxDepth>1</maxDepth>
    <maxWeakCount>100</maxWeakCount></stageParams>
  <featureParams>
    <maxCatCount>0</maxCatCount>
    <featSize>36</featSize></featureParams>
  <stageNum>3</stageNum>
  <stages>
    <!-- stage 0 -->
    <_>
      <maxWeakCount>4</maxWeakCount>
      <stageThreshold>1.1374266147613525e+00</stageThreshold>
      <weakClassifiers>
        <_>
          <internalNodes>
            0 -1 8 3.3721696585416794e-02</internalNodes>
          <leafValues>
            -9.3846154212951660e-01 7.2972971200942993e-01</leafValues></_>
        <_>
          <internalNodes>
            0 -1 0 1.2303455919027328e-01</internalNodes>
          <leafValues>
            -9.4131183624267578e-01 7.2428137063980103e-01</leafValues></_>
        <_>
          <internalNodes>
            0 -1 5 3.2406084239482880e-02</internalNodes>
          <leafValues>
            -9.7166615724563599e-01 6.3233023881912231e-01</leafValues></_>
        <_>
          <internalNodes>
            0 -1 4 1.0581465438008308e-02</internalNodes>
          <leafValues>
            -9.2864096164703369e-01 7.1927654743194580e-01</leafValues></_></weakClassifiers></_>
    <!-- stage 1 -->
    <_>
      <maxWeakCount>3</maxWeakCount>
      <stageThreshold>6.8520671129226685e-01</stageThreshold>
      <weakClassifiers>
        <_>
          <internalNodes>
            0 -1 2 7.6182015240192413e-02</internalNodes>
          <leafValues>
            -1. 7.4358975887298584e-01</leafValues></_>
        <_>
          <internalNodes>
            0 -1 6 1.2749413028359413e-02</internalNodes>
          <leafValues>
            8.6472183465957642e-01 -9.4330459833145142e-01</leafValues></_>
        <_>
          <internalNodes>
            0 -1 9 3.6282714456319809e-02</internalNodes>
          <leafValues>
            -9.2310482263565063e-01 9.3287491798400879e-01</leafValues></_></weakClassifiers></_>
    <!-- stage 2 -->
    <_>
      <maxWeakCount>3</maxWeakCount>
      <stageThreshold>7.9711043834686279e-01</stageThreshold>
      <weakClassifiers>
        <_>
          <internalNodes>
            0 -1 7 7.3923632502555847e-02</internalNodes>
          <leafValues>
            -8.3783781528472900e-01 1.</leafValues></_>
        <_>
          <internalNodes>
            0 -1 1 4.5438282191753387e-02</internalNodes>
          <leafValues>
            -8.3455324172973633e-01 9.2294472455978394e-01</leafValues></_>
        <_>
          <internalNodes>
            0 -1 3 1.5686016529798508e-02</internalNodes>
          <leafValues>
            7.1200358867645264e-01 -1.</leafValues></_></weakClassifiers></_></stages>
  <features>
    <_>
      <rect>
        0 16 8 8 17</rect></_>
    <_>
      <rect>
        4 0 8 8 2</rect></_>
    <_>
      <rect>
        4 4 8 8 26</rect></_>
    <_>
      <rect>
        8 0 8 8 8</rect></_>
    <_>
      <rect>
        12 0 8 8 28</rect></_>
    <_>
      <rect>
        12 4 8 8 4</rect></_>
    <_>
      <rect>
        16 8 8 8 13</rect></_>
    <_>
      <rect>
        16 8 8 8 24</rect></_>
    <_>
      <rect>
        16 16 8 8 20</rect></_>
    <_>
      <rect>
        8 0 8 16 14</rect></_></features></cascade>
</opencv_storage>
